digraph Tree {
node [shape=box] ;
0 [label="X[5] <= 137.5\nmse = 50271.2998\nsamples = 160\nvalue = 449.5125"] ;
1 [label="X[4] <= 604.5\nmse = 28959.4073\nsamples = 150\nvalue = 415.2933"] ;
0 -> 1 [labeldistance=2.5, labelangle=45, headlabel="True"] ;
2 [label="X[5] <= 92.2278\nmse = 13084.461\nsamples = 140\nvalue = 384.4429"] ;
1 -> 2 ;
3 [label="X[4] <= 546.7358\nmse = 6822.7818\nsamples = 114\nvalue = 345.2456"] ;
2 -> 3 ;
4 [label="X[4] <= 529.7358\nmse = 5271.0863\nsamples = 110\nvalue = 337.3091"] ;
3 -> 4 ;
5 [label="X[4] <= 401.0\nmse = 5667.9956\nsamples = 26\nvalue = 385.6538"] ;
4 -> 5 ;
6 [label="X[4] <= 317.0\nmse = 1301.3398\nsamples = 16\nvalue = 332.3125"] ;
5 -> 6 ;
7 [label="X[4] <= 292.0\nmse = 100.9167\nsamples = 6\nvalue = 291.5"] ;
6 -> 7 ;
8 [label="X[1] <= 18.0\nmse = 37.5556\nsamples = 3\nvalue = 282.6667"] ;
7 -> 8 ;
9 [label="mse = 0.0\nsamples = 2\nvalue = 287.0"] ;
8 -> 9 ;
10 [label="mse = 0.0\nsamples = 1\nvalue = 274.0"] ;
8 -> 10 ;
11 [label="X[0] <= 84.0\nmse = 8.2222\nsamples = 3\nvalue = 300.3333"] ;
7 -> 11 ;
12 [label="X[0] <= 42.0\nmse = 2.25\nsamples = 2\nvalue = 298.5"] ;
11 -> 12 ;
13 [label="mse = 0.0\nsamples = 1\nvalue = 300.0"] ;
12 -> 13 ;
14 [label="mse = 0.0\nsamples = 1\nvalue = 297.0"] ;
12 -> 14 ;
15 [label="mse = 0.0\nsamples = 1\nvalue = 304.0"] ;
11 -> 15 ;
16 [label="X[4] <= 361.5\nmse = 422.56\nsamples = 10\nvalue = 356.8"] ;
6 -> 16 ;
17 [label="X[4] <= 342.0\nmse = 70.9167\nsamples = 6\nvalue = 341.5"] ;
16 -> 17 ;
18 [label="X[0] <= 112.0\nmse = 17.5556\nsamples = 3\nvalue = 334.3333"] ;
17 -> 18 ;
19 [label="X[4] <= 331.5\nmse = 2.25\nsamples = 2\nvalue = 331.5"] ;
18 -> 19 ;
20 [label="mse = 0.0\nsamples = 1\nvalue = 330.0"] ;
19 -> 20 ;
21 [label="mse = 0.0\nsamples = 1\nvalue = 333.0"] ;
19 -> 21 ;
22 [label="mse = 0.0\nsamples = 1\nvalue = 340.0"] ;
18 -> 22 ;
23 [label="X[4] <= 351.0\nmse = 21.5556\nsamples = 3\nvalue = 348.6667"] ;
17 -> 23 ;
24 [label="X[0] <= 98.0\nmse = 2.25\nsamples = 2\nvalue = 345.5"] ;
23 -> 24 ;
25 [label="mse = 0.0\nsamples = 1\nvalue = 347.0"] ;
24 -> 25 ;
26 [label="mse = 0.0\nsamples = 1\nvalue = 344.0"] ;
24 -> 26 ;
27 [label="mse = 0.0\nsamples = 1\nvalue = 355.0"] ;
23 -> 27 ;
28 [label="X[4] <= 386.0\nmse = 72.1875\nsamples = 4\nvalue = 379.75"] ;
16 -> 28 ;
29 [label="X[1] <= 14.0\nmse = 29.5556\nsamples = 3\nvalue = 375.6667"] ;
28 -> 29 ;
30 [label="mse = 0.0\nsamples = 1\nvalue = 368.0"] ;
29 -> 30 ;
31 [label="X[1] <= 17.5\nmse = 0.25\nsamples = 2\nvalue = 379.5"] ;
29 -> 31 ;
32 [label="mse = 0.0\nsamples = 1\nvalue = 379.0"] ;
31 -> 32 ;
33 [label="mse = 0.0\nsamples = 1\nvalue = 380.0"] ;
31 -> 33 ;
34 [label="mse = 0.0\nsamples = 1\nvalue = 392.0"] ;
28 -> 34 ;
35 [label="X[4] <= 467.5\nmse = 818.2\nsamples = 10\nvalue = 471.0"] ;
5 -> 35 ;
36 [label="X[4] <= 427.5\nmse = 419.1875\nsamples = 4\nvalue = 443.75"] ;
35 -> 36 ;
37 [label="mse = 0.0\nsamples = 1\nvalue = 410.0"] ;
36 -> 37 ;
38 [label="X[4] <= 451.5\nmse = 52.6667\nsamples = 3\nvalue = 455.0"] ;
36 -> 38 ;
39 [label="mse = 0.0\nsamples = 1\nvalue = 445.0"] ;
38 -> 39 ;
40 [label="X[0] <= 90.0\nmse = 4.0\nsamples = 2\nvalue = 460.0"] ;
38 -> 40 ;
41 [label="mse = 0.0\nsamples = 1\nvalue = 462.0"] ;
40 -> 41 ;
42 [label="mse = 0.0\nsamples = 1\nvalue = 458.0"] ;
40 -> 42 ;
43 [label="X[4] <= 496.5\nmse = 259.1389\nsamples = 6\nvalue = 489.1667"] ;
35 -> 43 ;
44 [label="X[4] <= 482.5\nmse = 32.25\nsamples = 4\nvalue = 478.5"] ;
43 -> 44 ;
45 [label="X[4] <= 474.5\nmse = 2.8889\nsamples = 3\nvalue = 475.3333"] ;
44 -> 45 ;
46 [label="mse = 0.0\nsamples = 1\nvalue = 473.0"] ;
45 -> 46 ;
47 [label="X[4] <= 476.5\nmse = 0.25\nsamples = 2\nvalue = 476.5"] ;
45 -> 47 ;
48 [label="mse = 0.0\nsamples = 1\nvalue = 476.0"] ;
47 -> 48 ;
49 [label="mse = 0.0\nsamples = 1\nvalue = 477.0"] ;
47 -> 49 ;
50 [label="mse = 0.0\nsamples = 1\nvalue = 488.0"] ;
44 -> 50 ;
51 [label="X[4] <= 510.5\nmse = 30.25\nsamples = 2\nvalue = 510.5"] ;
43 -> 51 ;
52 [label="mse = 0.0\nsamples = 1\nvalue = 505.0"] ;
51 -> 52 ;
53 [label="mse = 0.0\nsamples = 1\nvalue = 516.0"] ;
51 -> 53 ;
54 [label="X[5] <= 91.3278\nmse = 4200.8927\nsamples = 84\nvalue = 322.3452"] ;
4 -> 54 ;
55 [label="X[5] <= 71.0\nmse = 2609.5351\nsamples = 65\nvalue = 346.4154"] ;
54 -> 55 ;
56 [label="X[5] <= 61.2\nmse = 626.664\nsamples = 39\nvalue = 311.2821"] ;
55 -> 56 ;
57 [label="X[5] <= 58.6\nmse = 105.6094\nsamples = 16\nvalue = 285.125"] ;
56 -> 57 ;
58 [label="X[5] <= 55.3\nmse = 37.4097\nsamples = 12\nvalue = 280.0833"] ;
57 -> 58 ;
59 [label="X[1] <= 16.0\nmse = 1.6875\nsamples = 4\nvalue = 272.25"] ;
58 -> 59 ;
60 [label="mse = 0.0\nsamples = 2\nvalue = 271.0"] ;
59 -> 60 ;
61 [label="X[1] <= 18.0\nmse = 0.25\nsamples = 2\nvalue = 273.5"] ;
59 -> 61 ;
62 [label="mse = 0.0\nsamples = 1\nvalue = 273.0"] ;
61 -> 62 ;
63 [label="mse = 0.0\nsamples = 1\nvalue = 274.0"] ;
61 -> 63 ;
64 [label="X[5] <= 56.8\nmse = 9.25\nsamples = 8\nvalue = 284.0"] ;
58 -> 64 ;
65 [label="X[5] <= 56.0\nmse = 2.1875\nsamples = 4\nvalue = 281.25"] ;
64 -> 65 ;
66 [label="mse = 0.0\nsamples = 1\nvalue = 279.0"] ;
65 -> 66 ;
67 [label="X[5] <= 56.3\nmse = 0.6667\nsamples = 3\nvalue = 282.0"] ;
65 -> 67 ;
68 [label="mse = 0.0\nsamples = 1\nvalue = 281.0"] ;
67 -> 68 ;
69 [label="X[0] <= 83.0\nmse = 0.25\nsamples = 2\nvalue = 282.5"] ;
67 -> 69 ;
70 [label="mse = 0.0\nsamples = 1\nvalue = 283.0"] ;
69 -> 70 ;
71 [label="mse = 0.0\nsamples = 1\nvalue = 282.0"] ;
69 -> 71 ;
72 [label="X[5] <= 57.2\nmse = 1.1875\nsamples = 4\nvalue = 286.75"] ;
64 -> 72 ;
73 [label="mse = 0.0\nsamples = 1\nvalue = 285.0"] ;
72 -> 73 ;
74 [label="X[0] <= 12.5\nmse = 0.2222\nsamples = 3\nvalue = 287.3333"] ;
72 -> 74 ;
75 [label="mse = 0.0\nsamples = 1\nvalue = 288.0"] ;
74 -> 75 ;
76 [label="mse = 0.0\nsamples = 2\nvalue = 287.0"] ;
74 -> 76 ;
77 [label="X[0] <= 126.0\nmse = 5.1875\nsamples = 4\nvalue = 300.25"] ;
57 -> 77 ;
78 [label="X[0] <= 27.0\nmse = 0.6667\nsamples = 3\nvalue = 299.0"] ;
77 -> 78 ;
79 [label="mse = 0.0\nsamples = 1\nvalue = 300.0"] ;
78 -> 79 ;
80 [label="X[0] <= 79.5\nmse = 0.25\nsamples = 2\nvalue = 298.5"] ;
78 -> 80 ;
81 [label="mse = 0.0\nsamples = 1\nvalue = 299.0"] ;
80 -> 81 ;
82 [label="mse = 0.0\nsamples = 1\nvalue = 298.0"] ;
80 -> 82 ;
83 [label="mse = 0.0\nsamples = 1\nvalue = 304.0"] ;
77 -> 83 ;
84 [label="X[5] <= 65.8\nmse = 182.0756\nsamples = 23\nvalue = 329.4783"] ;
56 -> 84 ;
85 [label="X[5] <= 63.3\nmse = 36.876\nsamples = 11\nvalue = 317.1818"] ;
84 -> 85 ;
86 [label="X[5] <= 62.4\nmse = 5.84\nsamples = 5\nvalue = 311.4"] ;
85 -> 86 ;
87 [label="X[5] <= 61.8\nmse = 1.5556\nsamples = 3\nvalue = 309.6667"] ;
86 -> 87 ;
88 [label="mse = 0.0\nsamples = 1\nvalue = 308.0"] ;
87 -> 88 ;
89 [label="X[0] <= 74.0\nmse = 0.25\nsamples = 2\nvalue = 310.5"] ;
87 -> 89 ;
90 [label="mse = 0.0\nsamples = 1\nvalue = 310.0"] ;
89 -> 90 ;
91 [label="mse = 0.0\nsamples = 1\nvalue = 311.0"] ;
89 -> 91 ;
92 [label="X[1] <= 14.5\nmse = 1.0\nsamples = 2\nvalue = 314.0"] ;
86 -> 92 ;
93 [label="mse = 0.0\nsamples = 1\nvalue = 315.0"] ;
92 -> 93 ;
94 [label="mse = 0.0\nsamples = 1\nvalue = 313.0"] ;
92 -> 94 ;
95 [label="X[5] <= 64.8\nmse = 11.6667\nsamples = 6\nvalue = 322.0"] ;
85 -> 95 ;
96 [label="X[0] <= 148.5\nmse = 2.1875\nsamples = 4\nvalue = 319.75"] ;
95 -> 96 ;
97 [label="X[0] <= 83.0\nmse = 0.6667\nsamples = 3\nvalue = 319.0"] ;
96 -> 97 ;
98 [label="mse = 0.0\nsamples = 1\nvalue = 318.0"] ;
97 -> 98 ;
99 [label="X[5] <= 63.9\nmse = 0.25\nsamples = 2\nvalue = 319.5"] ;
97 -> 99 ;
100 [label="mse = 0.0\nsamples = 1\nvalue = 319.0"] ;
99 -> 100 ;
101 [label="mse = 0.0\nsamples = 1\nvalue = 320.0"] ;
99 -> 101 ;
102 [label="mse = 0.0\nsamples = 1\nvalue = 322.0"] ;
96 -> 102 ;
103 [label="X[1] <= 17.0\nmse = 0.25\nsamples = 2\nvalue = 326.5"] ;
95 -> 103 ;
104 [label="mse = 0.0\nsamples = 1\nvalue = 327.0"] ;
103 -> 104 ;
105 [label="mse = 0.0\nsamples = 1\nvalue = 326.0"] ;
103 -> 105 ;
106 [label="X[5] <= 68.3\nmse = 49.5208\nsamples = 12\nvalue = 340.75"] ;
84 -> 106 ;
107 [label="X[5] <= 67.0\nmse = 6.2041\nsamples = 7\nvalue = 335.2857"] ;
106 -> 107 ;
108 [label="X[5] <= 66.4\nmse = 1.5556\nsamples = 3\nvalue = 332.6667"] ;
107 -> 108 ;
109 [label="mse = 0.0\nsamples = 1\nvalue = 331.0"] ;
108 -> 109 ;
110 [label="X[5] <= 66.7\nmse = 0.25\nsamples = 2\nvalue = 333.5"] ;
108 -> 110 ;
111 [label="mse = 0.0\nsamples = 1\nvalue = 333.0"] ;
110 -> 111 ;
112 [label="mse = 0.0\nsamples = 1\nvalue = 334.0"] ;
110 -> 112 ;
113 [label="X[5] <= 67.5\nmse = 0.6875\nsamples = 4\nvalue = 337.25"] ;
107 -> 113 ;
114 [label="X[0] <= 43.0\nmse = 0.25\nsamples = 2\nvalue = 336.5"] ;
113 -> 114 ;
115 [label="mse = 0.0\nsamples = 1\nvalue = 336.0"] ;
114 -> 115 ;
116 [label="mse = 0.0\nsamples = 1\nvalue = 337.0"] ;
114 -> 116 ;
117 [label="mse = 0.0\nsamples = 2\nvalue = 338.0"] ;
113 -> 117 ;
118 [label="X[5] <= 70.3\nmse = 9.84\nsamples = 5\nvalue = 348.4"] ;
106 -> 118 ;
119 [label="X[1] <= 16.5\nmse = 2.5\nsamples = 4\nvalue = 347.0"] ;
118 -> 119 ;
120 [label="X[0] <= 90.0\nmse = 0.25\nsamples = 2\nvalue = 345.5"] ;
119 -> 120 ;
121 [label="mse = 0.0\nsamples = 1\nvalue = 345.0"] ;
120 -> 121 ;
122 [label="mse = 0.0\nsamples = 1\nvalue = 346.0"] ;
120 -> 122 ;
123 [label="X[5] <= 69.7\nmse = 0.25\nsamples = 2\nvalue = 348.5"] ;
119 -> 123 ;
124 [label="mse = 0.0\nsamples = 1\nvalue = 348.0"] ;
123 -> 124 ;
125 [label="mse = 0.0\nsamples = 1\nvalue = 349.0"] ;
123 -> 125 ;
126 [label="mse = 0.0\nsamples = 1\nvalue = 354.0"] ;
118 -> 126 ;
127 [label="X[5] <= 80.0\nmse = 955.0251\nsamples = 26\nvalue = 399.1154"] ;
55 -> 127 ;
128 [label="X[5] <= 75.3\nmse = 123.5306\nsamples = 14\nvalue = 373.4286"] ;
127 -> 128 ;
129 [label="X[5] <= 72.2\nmse = 31.0617\nsamples = 9\nvalue = 366.2222"] ;
128 -> 129 ;
130 [label="X[3] <= 0.5\nmse = 1.0\nsamples = 2\nvalue = 357.0"] ;
129 -> 130 ;
131 [label="mse = 0.0\nsamples = 1\nvalue = 356.0"] ;
130 -> 131 ;
132 [label="mse = 0.0\nsamples = 1\nvalue = 358.0"] ;
130 -> 132 ;
133 [label="X[5] <= 74.0\nmse = 8.4082\nsamples = 7\nvalue = 368.8571"] ;
129 -> 133 ;
134 [label="X[5] <= 73.1\nmse = 3.44\nsamples = 5\nvalue = 367.4"] ;
133 -> 134 ;
135 [label="mse = 0.0\nsamples = 1\nvalue = 364.0"] ;
134 -> 135 ;
136 [label="X[5] <= 73.7\nmse = 0.6875\nsamples = 4\nvalue = 368.25"] ;
134 -> 136 ;
137 [label="X[5] <= 73.5\nmse = 0.25\nsamples = 2\nvalue = 367.5"] ;
136 -> 137 ;
138 [label="mse = 0.0\nsamples = 1\nvalue = 367.0"] ;
137 -> 138 ;
139 [label="mse = 0.0\nsamples = 1\nvalue = 368.0"] ;
137 -> 139 ;
140 [label="mse = 0.0\nsamples = 2\nvalue = 369.0"] ;
136 -> 140 ;
141 [label="X[5] <= 74.5\nmse = 2.25\nsamples = 2\nvalue = 372.5"] ;
133 -> 141 ;
142 [label="mse = 0.0\nsamples = 1\nvalue = 371.0"] ;
141 -> 142 ;
143 [label="mse = 0.0\nsamples = 1\nvalue = 374.0"] ;
141 -> 143 ;
144 [label="X[3] <= 0.5\nmse = 28.24\nsamples = 5\nvalue = 386.4"] ;
128 -> 144 ;
145 [label="X[5] <= 78.2\nmse = 0.8889\nsamples = 3\nvalue = 390.6667"] ;
144 -> 145 ;
146 [label="mse = 0.0\nsamples = 2\nvalue = 390.0"] ;
145 -> 146 ;
147 [label="mse = 0.0\nsamples = 1\nvalue = 392.0"] ;
145 -> 147 ;
148 [label="X[5] <= 76.0\nmse = 1.0\nsamples = 2\nvalue = 380.0"] ;
144 -> 148 ;
149 [label="mse = 0.0\nsamples = 1\nvalue = 379.0"] ;
148 -> 149 ;
150 [label="mse = 0.0\nsamples = 1\nvalue = 381.0"] ;
148 -> 150 ;
151 [label="X[5] <= 85.9\nmse = 257.2431\nsamples = 12\nvalue = 429.0833"] ;
127 -> 151 ;
152 [label="X[5] <= 83.2\nmse = 31.3469\nsamples = 7\nvalue = 416.7143"] ;
151 -> 152 ;
153 [label="X[3] <= 0.5\nmse = 4.6667\nsamples = 3\nvalue = 411.0"] ;
152 -> 153 ;
154 [label="X[1] <= 11.0\nmse = 0.25\nsamples = 2\nvalue = 412.5"] ;
153 -> 154 ;
155 [label="mse = 0.0\nsamples = 1\nvalue = 412.0"] ;
154 -> 155 ;
156 [label="mse = 0.0\nsamples = 1\nvalue = 413.0"] ;
154 -> 156 ;
157 [label="mse = 0.0\nsamples = 1\nvalue = 408.0"] ;
153 -> 157 ;
158 [label="X[0] <= 96.0\nmse = 8.5\nsamples = 4\nvalue = 421.0"] ;
152 -> 158 ;
159 [label="mse = 0.0\nsamples = 1\nvalue = 426.0"] ;
158 -> 159 ;
160 [label="X[5] <= 83.9\nmse = 0.2222\nsamples = 3\nvalue = 419.3333"] ;
158 -> 160 ;
161 [label="mse = 0.0\nsamples = 2\nvalue = 419.0"] ;
160 -> 161 ;
162 [label="mse = 0.0\nsamples = 1\nvalue = 420.0"] ;
160 -> 162 ;
163 [label="X[5] <= 87.8\nmse = 59.44\nsamples = 5\nvalue = 446.4"] ;
151 -> 163 ;
164 [label="mse = 0.0\nsamples = 1\nvalue = 433.0"] ;
163 -> 164 ;
165 [label="X[5] <= 90.0\nmse = 18.1875\nsamples = 4\nvalue = 449.75"] ;
163 -> 165 ;
166 [label="X[1] <= 14.0\nmse = 0.25\nsamples = 2\nvalue = 445.5"] ;
165 -> 166 ;
167 [label="mse = 0.0\nsamples = 1\nvalue = 446.0"] ;
166 -> 167 ;
168 [label="mse = 0.0\nsamples = 1\nvalue = 445.0"] ;
166 -> 168 ;
169 [label="mse = 0.0\nsamples = 2\nvalue = 454.0"] ;
165 -> 169 ;
170 [label="X[0] <= 48.5\nmse = 882.2105\nsamples = 19\nvalue = 240.0"] ;
54 -> 170 ;
171 [label="X[0] <= 1.5\nmse = 96.1389\nsamples = 6\nvalue = 257.8333"] ;
170 -> 171 ;
172 [label="mse = 0.0\nsamples = 1\nvalue = 237.0"] ;
171 -> 172 ;
173 [label="X[0] <= 23.0\nmse = 11.2\nsamples = 5\nvalue = 262.0"] ;
171 -> 173 ;
174 [label="X[0] <= 6.0\nmse = 2.75\nsamples = 4\nvalue = 263.5"] ;
173 -> 174 ;
175 [label="X[0] <= 2.5\nmse = 0.8889\nsamples = 3\nvalue = 264.3333"] ;
174 -> 175 ;
176 [label="mse = 0.0\nsamples = 1\nvalue = 263.0"] ;
175 -> 176 ;
177 [label="mse = 0.0\nsamples = 2\nvalue = 265.0"] ;
175 -> 177 ;
178 [label="mse = 0.0\nsamples = 1\nvalue = 261.0"] ;
174 -> 178 ;
179 [label="mse = 0.0\nsamples = 1\nvalue = 256.0"] ;
173 -> 179 ;
180 [label="X[0] <= 75.5\nmse = 1030.4852\nsamples = 13\nvalue = 231.7692"] ;
170 -> 180 ;
181 [label="X[0] <= 59.5\nmse = 169.0\nsamples = 2\nvalue = 173.0"] ;
180 -> 181 ;
182 [label="mse = 0.0\nsamples = 1\nvalue = 160.0"] ;
181 -> 182 ;
183 [label="mse = 0.0\nsamples = 1\nvalue = 186.0"] ;
181 -> 183 ;
184 [label="X[0] <= 100.5\nmse = 444.9752\nsamples = 11\nvalue = 242.4545"] ;
180 -> 184 ;
185 [label="X[0] <= 95.5\nmse = 561.36\nsamples = 5\nvalue = 231.2"] ;
184 -> 185 ;
186 [label="X[0] <= 92.0\nmse = 12.25\nsamples = 2\nvalue = 259.5"] ;
185 -> 186 ;
187 [label="mse = 0.0\nsamples = 1\nvalue = 263.0"] ;
186 -> 187 ;
188 [label="mse = 0.0\nsamples = 1\nvalue = 256.0"] ;
186 -> 188 ;
189 [label="X[2] <= 0.5\nmse = 37.5556\nsamples = 3\nvalue = 212.3333"] ;
185 -> 189 ;
190 [label="X[0] <= 99.5\nmse = 12.25\nsamples = 2\nvalue = 208.5"] ;
189 -> 190 ;
191 [label="mse = 0.0\nsamples = 1\nvalue = 212.0"] ;
190 -> 191 ;
192 [label="mse = 0.0\nsamples = 1\nvalue = 205.0"] ;
190 -> 192 ;
193 [label="mse = 0.0\nsamples = 1\nvalue = 220.0"] ;
189 -> 193 ;
194 [label="X[2] <= 0.5\nmse = 154.4722\nsamples = 6\nvalue = 251.8333"] ;
184 -> 194 ;
195 [label="X[0] <= 162.5\nmse = 125.2\nsamples = 5\nvalue = 255.0"] ;
194 -> 195 ;
196 [label="X[0] <= 138.5\nmse = 118.6875\nsamples = 4\nvalue = 252.25"] ;
195 -> 196 ;
197 [label="X[1] <= 18.0\nmse = 91.5556\nsamples = 3\nvalue = 256.3333"] ;
196 -> 197 ;
198 [label="X[0] <= 104.5\nmse = 81.0\nsamples = 2\nvalue = 252.0"] ;
197 -> 198 ;
199 [label="mse = 0.0\nsamples = 1\nvalue = 261.0"] ;
198 -> 199 ;
200 [label="mse = 0.0\nsamples = 1\nvalue = 243.0"] ;
198 -> 200 ;
201 [label="mse = 0.0\nsamples = 1\nvalue = 265.0"] ;
197 -> 201 ;
202 [label="mse = 0.0\nsamples = 1\nvalue = 240.0"] ;
196 -> 202 ;
203 [label="mse = 0.0\nsamples = 1\nvalue = 266.0"] ;
195 -> 203 ;
204 [label="mse = 0.0\nsamples = 1\nvalue = 236.0"] ;
194 -> 204 ;
205 [label="X[4] <= 563.5\nmse = 127.25\nsamples = 4\nvalue = 563.5"] ;
3 -> 205 ;
206 [label="X[4] <= 552.5\nmse = 6.25\nsamples = 2\nvalue = 552.5"] ;
205 -> 206 ;
207 [label="mse = 0.0\nsamples = 1\nvalue = 550.0"] ;
206 -> 207 ;
208 [label="mse = 0.0\nsamples = 1\nvalue = 555.0"] ;
206 -> 208 ;
209 [label="X[1] <= 11.0\nmse = 6.25\nsamples = 2\nvalue = 574.5"] ;
205 -> 209 ;
210 [label="mse = 0.0\nsamples = 1\nvalue = 572.0"] ;
209 -> 210 ;
211 [label="mse = 0.0\nsamples = 1\nvalue = 577.0"] ;
209 -> 211 ;
212 [label="X[5] <= 113.6\nmse = 4265.3669\nsamples = 26\nvalue = 556.3077"] ;
2 -> 212 ;
213 [label="X[5] <= 102.2\nmse = 954.24\nsamples = 15\nvalue = 506.6"] ;
212 -> 213 ;
214 [label="X[5] <= 97.3\nmse = 169.1094\nsamples = 8\nvalue = 479.875"] ;
213 -> 214 ;
215 [label="X[5] <= 93.5\nmse = 40.24\nsamples = 5\nvalue = 470.6"] ;
214 -> 215 ;
216 [label="X[0] <= 69.0\nmse = 0.25\nsamples = 2\nvalue = 463.5"] ;
215 -> 216 ;
217 [label="mse = 0.0\nsamples = 1\nvalue = 464.0"] ;
216 -> 217 ;
218 [label="mse = 0.0\nsamples = 1\nvalue = 463.0"] ;
216 -> 218 ;
219 [label="X[5] <= 94.7\nmse = 10.8889\nsamples = 3\nvalue = 475.3333"] ;
215 -> 219 ;
220 [label="mse = 0.0\nsamples = 1\nvalue = 471.0"] ;
219 -> 220 ;
221 [label="X[0] <= 53.0\nmse = 2.25\nsamples = 2\nvalue = 477.5"] ;
219 -> 221 ;
222 [label="mse = 0.0\nsamples = 1\nvalue = 479.0"] ;
221 -> 222 ;
223 [label="mse = 0.0\nsamples = 1\nvalue = 476.0"] ;
221 -> 223 ;
224 [label="X[5] <= 99.2\nmse = 1.5556\nsamples = 3\nvalue = 495.3333"] ;
214 -> 224 ;
225 [label="X[5] <= 98.9\nmse = 0.25\nsamples = 2\nvalue = 494.5"] ;
224 -> 225 ;
226 [label="mse = 0.0\nsamples = 1\nvalue = 494.0"] ;
225 -> 226 ;
227 [label="mse = 0.0\nsamples = 1\nvalue = 495.0"] ;
225 -> 227 ;
228 [label="mse = 0.0\nsamples = 1\nvalue = 497.0"] ;
224 -> 228 ;
229 [label="X[5] <= 108.4\nmse = 102.4082\nsamples = 7\nvalue = 537.1429"] ;
213 -> 229 ;
230 [label="X[5] <= 106.7\nmse = 25.84\nsamples = 5\nvalue = 531.6"] ;
229 -> 230 ;
231 [label="X[1] <= 11.0\nmse = 4.2222\nsamples = 3\nvalue = 527.6667"] ;
230 -> 231 ;
232 [label="mse = 0.0\nsamples = 1\nvalue = 525.0"] ;
231 -> 232 ;
233 [label="X[5] <= 105.8\nmse = 1.0\nsamples = 2\nvalue = 529.0"] ;
231 -> 233 ;
234 [label="mse = 0.0\nsamples = 1\nvalue = 528.0"] ;
233 -> 234 ;
235 [label="mse = 0.0\nsamples = 1\nvalue = 530.0"] ;
233 -> 235 ;
236 [label="X[0] <= 123.5\nmse = 0.25\nsamples = 2\nvalue = 537.5"] ;
230 -> 236 ;
237 [label="mse = 0.0\nsamples = 1\nvalue = 537.0"] ;
236 -> 237 ;
238 [label="mse = 0.0\nsamples = 1\nvalue = 538.0"] ;
236 -> 238 ;
239 [label="X[0] <= 134.5\nmse = 25.0\nsamples = 2\nvalue = 551.0"] ;
229 -> 239 ;
240 [label="mse = 0.0\nsamples = 1\nvalue = 556.0"] ;
239 -> 240 ;
241 [label="mse = 0.0\nsamples = 1\nvalue = 546.0"] ;
239 -> 241 ;
242 [label="X[5] <= 124.4\nmse = 816.6281\nsamples = 11\nvalue = 624.0909"] ;
212 -> 242 ;
243 [label="X[5] <= 119.8\nmse = 106.16\nsamples = 5\nvalue = 595.8"] ;
242 -> 243 ;
244 [label="X[3] <= 0.5\nmse = 34.8889\nsamples = 3\nvalue = 588.3333"] ;
243 -> 244 ;
245 [label="mse = 0.0\nsamples = 1\nvalue = 580.0"] ;
244 -> 245 ;
246 [label="X[5] <= 118.5\nmse = 0.25\nsamples = 2\nvalue = 592.5"] ;
244 -> 246 ;
247 [label="mse = 0.0\nsamples = 1\nvalue = 592.0"] ;
246 -> 247 ;
248 [label="mse = 0.0\nsamples = 1\nvalue = 593.0"] ;
246 -> 248 ;
249 [label="X[5] <= 121.4\nmse = 4.0\nsamples = 2\nvalue = 607.0"] ;
243 -> 249 ;
250 [label="mse = 0.0\nsamples = 1\nvalue = 605.0"] ;
249 -> 250 ;
251 [label="mse = 0.0\nsamples = 1\nvalue = 609.0"] ;
249 -> 251 ;
252 [label="X[5] <= 132.7\nmse = 185.8889\nsamples = 6\nvalue = 647.6667"] ;
242 -> 252 ;
253 [label="X[1] <= 11.0\nmse = 56.64\nsamples = 5\nvalue = 642.4"] ;
252 -> 253 ;
254 [label="X[3] <= 0.5\nmse = 2.25\nsamples = 2\nvalue = 651.5"] ;
253 -> 254 ;
255 [label="mse = 0.0\nsamples = 1\nvalue = 650.0"] ;
254 -> 255 ;
256 [label="mse = 0.0\nsamples = 1\nvalue = 653.0"] ;
254 -> 256 ;
257 [label="X[0] <= 150.5\nmse = 0.8889\nsamples = 3\nvalue = 636.3333"] ;
253 -> 257 ;
258 [label="mse = 0.0\nsamples = 1\nvalue = 635.0"] ;
257 -> 258 ;
259 [label="mse = 0.0\nsamples = 2\nvalue = 637.0"] ;
257 -> 259 ;
260 [label="mse = 0.0\nsamples = 1\nvalue = 674.0"] ;
252 -> 260 ;
261 [label="X[0] <= 181.0\nmse = 51340.76\nsamples = 10\nvalue = 847.2"] ;
1 -> 261 ;
262 [label="X[4] <= 875.5\nmse = 15112.4691\nsamples = 9\nvalue = 782.4444"] ;
261 -> 262 ;
263 [label="X[4] <= 728.5\nmse = 4392.6939\nsamples = 7\nvalue = 724.8571"] ;
262 -> 263 ;
264 [label="X[0] <= 160.5\nmse = 648.6667\nsamples = 3\nvalue = 651.0"] ;
263 -> 264 ;
265 [label="X[0] <= 140.0\nmse = 1.0\nsamples = 2\nvalue = 633.0"] ;
264 -> 265 ;
266 [label="mse = 0.0\nsamples = 1\nvalue = 632.0"] ;
265 -> 266 ;
267 [label="mse = 0.0\nsamples = 1\nvalue = 634.0"] ;
265 -> 267 ;
268 [label="mse = 0.0\nsamples = 1\nvalue = 687.0"] ;
264 -> 268 ;
269 [label="X[0] <= 79.5\nmse = 41.1875\nsamples = 4\nvalue = 780.25"] ;
263 -> 269 ;
270 [label="mse = 0.0\nsamples = 1\nvalue = 770.0"] ;
269 -> 270 ;
271 [label="X[4] <= 782.0\nmse = 8.2222\nsamples = 3\nvalue = 783.6667"] ;
269 -> 271 ;
272 [label="mse = 0.0\nsamples = 1\nvalue = 780.0"] ;
271 -> 272 ;
273 [label="X[1] <= 11.0\nmse = 2.25\nsamples = 2\nvalue = 785.5"] ;
271 -> 273 ;
274 [label="mse = 0.0\nsamples = 1\nvalue = 784.0"] ;
273 -> 274 ;
275 [label="mse = 0.0\nsamples = 1\nvalue = 787.0"] ;
273 -> 275 ;
276 [label="X[4] <= 984.0\nmse = 400.0\nsamples = 2\nvalue = 984.0"] ;
262 -> 276 ;
277 [label="mse = 0.0\nsamples = 1\nvalue = 964.0"] ;
276 -> 277 ;
278 [label="mse = 0.0\nsamples = 1\nvalue = 1004.0"] ;
276 -> 278 ;
279 [label="mse = 0.0\nsamples = 1\nvalue = 1430.0"] ;
261 -> 279 ;
280 [label="X[1] <= 15.5\nmse = 88921.36\nsamples = 10\nvalue = 962.8"] ;
0 -> 280 [labeldistance=2.5, labelangle=-45, headlabel="False"] ;
281 [label="X[5] <= 180.9\nmse = 17761.5062\nsamples = 9\nvalue = 872.7778"] ;
280 -> 281 ;
282 [label="X[5] <= 156.7\nmse = 3616.16\nsamples = 5\nvalue = 769.2"] ;
281 -> 282 ;
283 [label="X[0] <= 196.5\nmse = 771.5556\nsamples = 3\nvalue = 726.3333"] ;
282 -> 283 ;
284 [label="X[1] <= 12.0\nmse = 36.0\nsamples = 2\nvalue = 707.0"] ;
283 -> 284 ;
285 [label="mse = 0.0\nsamples = 1\nvalue = 701.0"] ;
284 -> 285 ;
286 [label="mse = 0.0\nsamples = 1\nvalue = 713.0"] ;
284 -> 286 ;
287 [label="mse = 0.0\nsamples = 1\nvalue = 765.0"] ;
283 -> 287 ;
288 [label="X[5] <= 166.7\nmse = 992.25\nsamples = 2\nvalue = 833.5"] ;
282 -> 288 ;
289 [label="mse = 0.0\nsamples = 1\nvalue = 802.0"] ;
288 -> 289 ;
290 [label="mse = 0.0\nsamples = 1\nvalue = 865.0"] ;
288 -> 290 ;
291 [label="X[5] <= 211.8\nmse = 5269.6875\nsamples = 4\nvalue = 1002.25"] ;
281 -> 291 ;
292 [label="X[5] <= 194.2\nmse = 546.0\nsamples = 3\nvalue = 962.0"] ;
291 -> 292 ;
293 [label="X[5] <= 189.1\nmse = 2.25\nsamples = 2\nvalue = 945.5"] ;
292 -> 293 ;
294 [label="mse = 0.0\nsamples = 1\nvalue = 944.0"] ;
293 -> 294 ;
295 [label="mse = 0.0\nsamples = 1\nvalue = 947.0"] ;
293 -> 295 ;
296 [label="mse = 0.0\nsamples = 1\nvalue = 995.0"] ;
292 -> 296 ;
297 [label="mse = 0.0\nsamples = 1\nvalue = 1123.0"] ;
291 -> 297 ;
298 [label="mse = 0.0\nsamples = 1\nvalue = 1773.0"] ;
280 -> 298 ;
}